digraph Tree {
node [shape=box] ;
0 [label="VEH <= 1.5\ngini = 0.384\nsamples = 10966\nvalue = [8124, 2842]"] ;
1 [label="HINCP <= 99800.0\ngini = 0.2624\nsamples = 5467\nvalue = [4618, 849]"] ;
0 -> 1 [labeldistance=2.5, labelangle=45, headlabel="True"] ;
2 [label="unmarried_partner <= 0.5\ngini = 0.2241\nsamples = 4574\nvalue = [3986, 588]"] ;
1 -> 2 ;
3 [label="VEH <= 0.5\ngini = 0.235\nsamples = 4242\nvalue = [3665, 577]"] ;
2 -> 3 ;
4 [label="nonfamily <= 0.5\ngini = 0.1098\nsamples = 858\nvalue = [808, 50]"] ;
3 -> 4 ;
5 [label="children <= 0.5\ngini = 0.1356\nsamples = 246\nvalue = [228, 18]"] ;
4 -> 5 ;
6 [label="HINCP <= 12500.0\ngini = 0.1876\nsamples = 105\nvalue = [94, 11]"] ;
5 -> 6 ;
7 [label="gini = 0.074\nsamples = 26\nvalue = [25, 1]"] ;
6 -> 7 ;
8 [label="gini = 0.2211\nsamples = 79\nvalue = [69, 10]"] ;
6 -> 8 ;
9 [label="HUGCL <= 0.5\ngini = 0.0944\nsamples = 141\nvalue = [134, 7]"] ;
5 -> 9 ;
10 [label="gini = 0.074\nsamples = 130\nvalue = [125, 5]"] ;
9 -> 10 ;
11 [label="gini = 0.2975\nsamples = 11\nvalue = [9, 2]"] ;
9 -> 11 ;
12 [label="HINCP <= 20800.0\ngini = 0.0991\nsamples = 612\nvalue = [580, 32]"] ;
4 -> 12 ;
13 [label="good_english_speaker <= 0.5\ngini = 0.0659\nsamples = 381\nvalue = [368, 13]"] ;
12 -> 13 ;
14 [label="gini = 0.0\nsamples = 56\nvalue = [56, 0]"] ;
13 -> 14 ;
15 [label="gini = 0.0768\nsamples = 325\nvalue = [312, 13]"] ;
13 -> 15 ;
16 [label="HINCP <= 21100.0\ngini = 0.151\nsamples = 231\nvalue = [212, 19]"] ;
12 -> 16 ;
17 [label="gini = 0.48\nsamples = 5\nvalue = [3, 2]"] ;
16 -> 17 ;
18 [label="gini = 0.1391\nsamples = 226\nvalue = [209, 17]"] ;
16 -> 18 ;
19 [label="fs_recode <= 0.5\ngini = 0.263\nsamples = 3384\nvalue = [2857, 527]"] ;
3 -> 19 ;
20 [label="NR <= 0.5\ngini = 0.2851\nsamples = 2915\nvalue = [2413, 502]"] ;
19 -> 20 ;
21 [label="english_hh <= 0.5\ngini = 0.2955\nsamples = 2719\nvalue = [2229, 490]"] ;
20 -> 21 ;
22 [label="gini = 0.2497\nsamples = 1005\nvalue = [858, 147]"] ;
21 -> 22 ;
23 [label="gini = 0.3201\nsamples = 1714\nvalue = [1371, 343]"] ;
21 -> 23 ;
24 [label="HINCP <= 24800.0\ngini = 0.115\nsamples = 196\nvalue = [184, 12]"] ;
20 -> 24 ;
25 [label="gini = 0.0\nsamples = 65\nvalue = [65, 0]"] ;
24 -> 25 ;
26 [label="gini = 0.1664\nsamples = 131\nvalue = [119, 12]"] ;
24 -> 26 ;
27 [label="NR <= 0.5\ngini = 0.1009\nsamples = 469\nvalue = [444, 25]"] ;
19 -> 27 ;
28 [label="single_parent <= 0.5\ngini = 0.0852\nsamples = 426\nvalue = [407, 19]"] ;
27 -> 28 ;
29 [label="gini = 0.0563\nsamples = 207\nvalue = [201, 6]"] ;
28 -> 29 ;
30 [label="gini = 0.1117\nsamples = 219\nvalue = [206, 13]"] ;
28 -> 30 ;
31 [label="nonfamily <= 0.5\ngini = 0.2401\nsamples = 43\nvalue = [37, 6]"] ;
27 -> 31 ;
32 [label="gini = 0.074\nsamples = 26\nvalue = [25, 1]"] ;
31 -> 32 ;
33 [label="gini = 0.4152\nsamples = 17\nvalue = [12, 5]"] ;
31 -> 33 ;
34 [label="HINCP <= 34950.0\ngini = 0.0641\nsamples = 332\nvalue = [321, 11]"] ;
2 -> 34 ;
35 [label="fs_recode <= 0.5\ngini = 0.025\nsamples = 158\nvalue = [156, 2]"] ;
34 -> 35 ;
36 [label="gini = 0.0\nsamples = 79\nvalue = [79, 0]"] ;
35 -> 36 ;
37 [label="HINCP <= 12150.0\ngini = 0.0494\nsamples = 79\nvalue = [77, 2]"] ;
35 -> 37 ;
38 [label="VEH <= 0.5\ngini = 0.1884\nsamples = 19\nvalue = [17, 2]"] ;
37 -> 38 ;
39 [label="gini = 0.0\nsamples = 5\nvalue = [5, 0]"] ;
38 -> 39 ;
40 [label="gini = 0.2449\nsamples = 14\nvalue = [12, 2]"] ;
38 -> 40 ;
41 [label="gini = 0.0\nsamples = 60\nvalue = [60, 0]"] ;
37 -> 41 ;
42 [label="HINCP <= 35300.0\ngini = 0.0981\nsamples = 174\nvalue = [165, 9]"] ;
34 -> 42 ;
43 [label="single_parent <= 0.5\ngini = 0.4444\nsamples = 6\nvalue = [4, 2]"] ;
42 -> 43 ;
44 [label="gini = 0.0\nsamples = 3\nvalue = [3, 0]"] ;
43 -> 44 ;
45 [label="gini = 0.4444\nsamples = 3\nvalue = [1, 2]"] ;
43 -> 45 ;
46 [label="good_english_speaker <= 0.5\ngini = 0.0799\nsamples = 168\nvalue = [161, 7]"] ;
42 -> 46 ;
47 [label="HINCP <= 43500.0\ngini = 0.1528\nsamples = 12\nvalue = [11, 1]"] ;
46 -> 47 ;
48 [label="gini = 0.0\nsamples = 7\nvalue = [7, 0]"] ;
47 -> 48 ;
49 [label="gini = 0.32\nsamples = 5\nvalue = [4, 1]"] ;
47 -> 49 ;
50 [label="HUGCL <= 0.5\ngini = 0.074\nsamples = 156\nvalue = [150, 6]"] ;
46 -> 50 ;
51 [label="gini = 0.0636\nsamples = 152\nvalue = [147, 5]"] ;
50 -> 51 ;
52 [label="gini = 0.375\nsamples = 4\nvalue = [3, 1]"] ;
50 -> 52 ;
53 [label="NR <= 0.5\ngini = 0.4137\nsamples = 893\nvalue = [632, 261]"] ;
1 -> 53 ;
54 [label="multigen <= 0.5\ngini = 0.433\nsamples = 754\nvalue = [515, 239]"] ;
53 -> 54 ;
55 [label="gini = 0.0\nsamples = 6\nvalue = [6, 0]"] ;
54 -> 55 ;
56 [label="fs_recode <= 0.5\ngini = 0.4349\nsamples = 748\nvalue = [509, 239]"] ;
54 -> 56 ;
57 [label="HINCP <= 241650.0\ngini = 0.4357\nsamples = 742\nvalue = [504, 238]"] ;
56 -> 57 ;
58 [label="laptop_recode <= 0.5\ngini = 0.4101\nsamples = 639\nvalue = [455, 184]"] ;
57 -> 58 ;
59 [label="gini = 0.2706\nsamples = 31\nvalue = [26, 5]"] ;
58 -> 59 ;
60 [label="gini = 0.4155\nsamples = 608\nvalue = [429, 179]"] ;
58 -> 60 ;
61 [label="HINCP <= 440500.0\ngini = 0.4988\nsamples = 103\nvalue = [49, 54]"] ;
57 -> 61 ;
62 [label="gini = 0.4612\nsamples = 61\nvalue = [22, 39]"] ;
61 -> 62 ;
63 [label="gini = 0.4592\nsamples = 42\nvalue = [27, 15]"] ;
61 -> 63 ;
64 [label="laptop_recode <= 0.5\ngini = 0.2778\nsamples = 6\nvalue = [5, 1]"] ;
56 -> 64 ;
65 [label="gini = 0.4444\nsamples = 3\nvalue = [2, 1]"] ;
64 -> 65 ;
66 [label="gini = 0.0\nsamples = 3\nvalue = [3, 0]"] ;
64 -> 66 ;
67 [label="HUGCL <= 0.5\ngini = 0.2664\nsamples = 139\nvalue = [117, 22]"] ;
53 -> 67 ;
68 [label="HINCP <= 116500.0\ngini = 0.2493\nsamples = 137\nvalue = [117, 20]"] ;
67 -> 68 ;
69 [label="HINCP <= 108500.0\ngini = 0.0644\nsamples = 30\nvalue = [29, 1]"] ;
68 -> 69 ;
70 [label="gini = 0.0\nsamples = 19\nvalue = [19, 0]"] ;
69 -> 70 ;
71 [label="HINCP <= 109775.0\ngini = 0.1653\nsamples = 11\nvalue = [10, 1]"] ;
69 -> 71 ;
72 [label="gini = 0.5\nsamples = 2\nvalue = [1, 1]"] ;
71 -> 72 ;
73 [label="gini = 0.0\nsamples = 9\nvalue = [9, 0]"] ;
71 -> 73 ;
74 [label="laptop_recode <= 0.5\ngini = 0.2921\nsamples = 107\nvalue = [88, 19]"] ;
68 -> 74 ;
75 [label="VEH <= 0.5\ngini = 0.48\nsamples = 5\nvalue = [2, 3]"] ;
74 -> 75 ;
76 [label="gini = 0.0\nsamples = 2\nvalue = [0, 2]"] ;
75 -> 76 ;
77 [label="gini = 0.4444\nsamples = 3\nvalue = [2, 1]"] ;
75 -> 77 ;
78 [label="good_english_speaker <= 0.5\ngini = 0.2645\nsamples = 102\nvalue = [86, 16]"] ;
74 -> 78 ;
79 [label="gini = 0.4444\nsamples = 3\nvalue = [1, 2]"] ;
78 -> 79 ;
80 [label="gini = 0.2428\nsamples = 99\nvalue = [85, 14]"] ;
78 -> 80 ;
81 [label="gini = 0.0\nsamples = 2\nvalue = [0, 2]"] ;
67 -> 81 ;
82 [label="nonfamily <= 0.5\ngini = 0.4621\nsamples = 5499\nvalue = [3506, 1993]"] ;
0 -> 82 [labeldistance=2.5, labelangle=-45, headlabel="False"] ;
83 [label="fs_recode <= 0.5\ngini = 0.4877\nsamples = 4058\nvalue = [2347, 1711]"] ;
82 -> 83 ;
84 [label="single_parent <= 0.5\ngini = 0.4955\nsamples = 3665\nvalue = [2007, 1658]"] ;
83 -> 84 ;
85 [label="HINCP <= 77300.0\ngini = 0.4998\nsamples = 2888\nvalue = [1470, 1418]"] ;
84 -> 85 ;
86 [label="VEH <= 2.5\ngini = 0.4455\nsamples = 1060\nvalue = [705, 355]"] ;
85 -> 86 ;
87 [label="children <= 0.5\ngini = 0.4276\nsamples = 849\nvalue = [586, 263]"] ;
86 -> 87 ;
88 [label="gini = 0.4516\nsamples = 418\nvalue = [274, 144]"] ;
87 -> 88 ;
89 [label="gini = 0.3997\nsamples = 431\nvalue = [312, 119]"] ;
87 -> 89 ;
90 [label="HINCP <= 32502.0\ngini = 0.4918\nsamples = 211\nvalue = [119, 92]"] ;
86 -> 90 ;
91 [label="gini = 0.4717\nsamples = 42\nvalue = [16, 26]"] ;
90 -> 91 ;
92 [label="gini = 0.476\nsamples = 169\nvalue = [103, 66]"] ;
90 -> 92 ;
93 [label="HUGCL <= 0.5\ngini = 0.4867\nsamples = 1828\nvalue = [765, 1063]"] ;
85 -> 93 ;
94 [label="VEH <= 2.5\ngini = 0.4883\nsamples = 1740\nvalue = [737, 1003]"] ;
93 -> 94 ;
95 [label="gini = 0.4957\nsamples = 1283\nvalue = [582, 701]"] ;
94 -> 95 ;
96 [label="gini = 0.4483\nsamples = 457\nvalue = [155, 302]"] ;
94 -> 96 ;
97 [label="VEH <= 4.5\ngini = 0.4339\nsamples = 88\nvalue = [28, 60]"] ;
93 -> 97 ;
98 [label="gini = 0.42\nsamples = 80\nvalue = [24, 56]"] ;
97 -> 98 ;
99 [label="gini = 0.5\nsamples = 8\nvalue = [4, 4]"] ;
97 -> 99 ;
100 [label="VEH <= 2.5\ngini = 0.4269\nsamples = 777\nvalue = [537, 240]"] ;
84 -> 100 ;
101 [label="unmarried_partner <= 0.5\ngini = 0.3801\nsamples = 529\nvalue = [394, 135]"] ;
100 -> 101 ;
102 [label="children <= 0.5\ngini = 0.4091\nsamples = 394\nvalue = [281, 113]"] ;
101 -> 102 ;
103 [label="gini = 0.4465\nsamples = 211\nvalue = [140, 71]"] ;
102 -> 103 ;
104 [label="gini = 0.3537\nsamples = 183\nvalue = [141, 42]"] ;
102 -> 104 ;
105 [label="HINCP <= 90500.0\ngini = 0.2728\nsamples = 135\nvalue = [113, 22]"] ;
101 -> 105 ;
106 [label="gini = 0.18\nsamples = 100\nvalue = [90, 10]"] ;
105 -> 106 ;
107 [label="gini = 0.4506\nsamples = 35\nvalue = [23, 12]"] ;
105 -> 107 ;
108 [label="VEH <= 3.5\ngini = 0.4883\nsamples = 248\nvalue = [143, 105]"] ;
100 -> 108 ;
109 [label="NR <= 0.5\ngini = 0.4726\nsamples = 188\nvalue = [116, 72]"] ;
108 -> 109 ;
110 [label="gini = 0.4959\nsamples = 99\nvalue = [54, 45]"] ;
109 -> 110 ;
111 [label="gini = 0.4227\nsamples = 89\nvalue = [62, 27]"] ;
109 -> 111 ;
112 [label="VEH <= 4.5\ngini = 0.495\nsamples = 60\nvalue = [27, 33]"] ;
108 -> 112 ;
113 [label="gini = 0.5\nsamples = 44\nvalue = [22, 22]"] ;
112 -> 113 ;
114 [label="gini = 0.4297\nsamples = 16\nvalue = [5, 11]"] ;
112 -> 114 ;
115 [label="HINCP <= 110480.0\ngini = 0.2333\nsamples = 393\nvalue = [340, 53]"] ;
83 -> 115 ;
116 [label="HINCP <= 34750.0\ngini = 0.1899\nsamples = 367\nvalue = [328, 39]"] ;
115 -> 116 ;
117 [label="NR <= 0.5\ngini = 0.1002\nsamples = 189\nvalue = [179, 10]"] ;
116 -> 117 ;
118 [label="VEH <= 2.5\ngini = 0.1228\nsamples = 137\nvalue = [128, 9]"] ;
117 -> 118 ;
119 [label="gini = 0.0853\nsamples = 112\nvalue = [107, 5]"] ;
118 -> 119 ;
120 [label="gini = 0.2688\nsamples = 25\nvalue = [21, 4]"] ;
118 -> 120 ;
121 [label="good_english_speaker <= 0.5\ngini = 0.0377\nsamples = 52\nvalue = [51, 1]"] ;
117 -> 121 ;
122 [label="gini = 0.1653\nsamples = 11\nvalue = [10, 1]"] ;
121 -> 122 ;
123 [label="gini = 0.0\nsamples = 41\nvalue = [41, 0]"] ;
121 -> 123 ;
124 [label="single_parent <= 0.5\ngini = 0.2728\nsamples = 178\nvalue = [149, 29]"] ;
116 -> 124 ;
125 [label="children <= 0.5\ngini = 0.3488\nsamples = 80\nvalue = [62, 18]"] ;
124 -> 125 ;
126 [label="gini = 0.48\nsamples = 10\nvalue = [4, 6]"] ;
125 -> 126 ;
127 [label="gini = 0.2841\nsamples = 70\nvalue = [58, 12]"] ;
125 -> 127 ;
128 [label="VEH <= 2.5\ngini = 0.1993\nsamples = 98\nvalue = [87, 11]"] ;
124 -> 128 ;
129 [label="gini = 0.2417\nsamples = 64\nvalue = [55, 9]"] ;
128 -> 129 ;
130 [label="gini = 0.1107\nsamples = 34\nvalue = [32, 2]"] ;
128 -> 130 ;
131 [label="laptop_recode <= 0.5\ngini = 0.497\nsamples = 26\nvalue = [12, 14]"] ;
115 -> 131 ;
132 [label="gini = 0.0\nsamples = 3\nvalue = [3, 0]"] ;
131 -> 132 ;
133 [label="multigen <= 0.5\ngini = 0.4764\nsamples = 23\nvalue = [9, 14]"] ;
131 -> 133 ;
134 [label="single_parent <= 0.5\ngini = 0.3457\nsamples = 9\nvalue = [2, 7]"] ;
133 -> 134 ;
135 [label="gini = 0.4082\nsamples = 7\nvalue = [2, 5]"] ;
134 -> 135 ;
136 [label="gini = 0.0\nsamples = 2\nvalue = [0, 2]"] ;
134 -> 136 ;
137 [label="HINCP <= 119500.0\ngini = 0.5\nsamples = 14\nvalue = [7, 7]"] ;
133 -> 137 ;
138 [label="gini = 0.0\nsamples = 3\nvalue = [0, 3]"] ;
137 -> 138 ;
139 [label="gini = 0.4628\nsamples = 11\nvalue = [7, 4]"] ;
137 -> 139 ;
140 [label="HINCP <= 71950.0\ngini = 0.3148\nsamples = 1441\nvalue = [1159, 282]"] ;
82 -> 140 ;
141 [label="english_hh <= 0.5\ngini = 0.216\nsamples = 755\nvalue = [662, 93]"] ;
140 -> 141 ;
142 [label="HINCP <= 53930.0\ngini = 0.1625\nsamples = 269\nvalue = [245, 24]"] ;
141 -> 142 ;
143 [label="laptop_recode <= 0.5\ngini = 0.186\nsamples = 212\nvalue = [190, 22]"] ;
142 -> 143 ;
144 [label="HINCP <= 7550.0\ngini = 0.2449\nsamples = 21\nvalue = [18, 3]"] ;
143 -> 144 ;
145 [label="gini = 0.5\nsamples = 4\nvalue = [2, 2]"] ;
144 -> 145 ;
146 [label="gini = 0.1107\nsamples = 17\nvalue = [16, 1]"] ;
144 -> 146 ;
147 [label="HINCP <= 51615.0\ngini = 0.1792\nsamples = 191\nvalue = [172, 19]"] ;
143 -> 147 ;
148 [label="gini = 0.149\nsamples = 185\nvalue = [170, 15]"] ;
147 -> 148 ;
149 [label="gini = 0.4444\nsamples = 6\nvalue = [2, 4]"] ;
147 -> 149 ;
150 [label="unmarried_partner <= 0.5\ngini = 0.0677\nsamples = 57\nvalue = [55, 2]"] ;
142 -> 150 ;
151 [label="VEH <= 2.5\ngini = 0.1244\nsamples = 30\nvalue = [28, 2]"] ;
150 -> 151 ;
152 [label="gini = 0.18\nsamples = 20\nvalue = [18, 2]"] ;
151 -> 152 ;
153 [label="gini = 0.0\nsamples = 10\nvalue = [10, 0]"] ;
151 -> 153 ;
154 [label="gini = 0.0\nsamples = 27\nvalue = [27, 0]"] ;
150 -> 154 ;
155 [label="NR <= 0.5\ngini = 0.2436\nsamples = 486\nvalue = [417, 69]"] ;
141 -> 155 ;
156 [label="HINCP <= 62500.0\ngini = 0.4279\nsamples = 129\nvalue = [89, 40]"] ;
155 -> 156 ;
157 [label="HINCP <= 47250.0\ngini = 0.3988\nsamples = 120\nvalue = [87, 33]"] ;
156 -> 157 ;
158 [label="gini = 0.4281\nsamples = 87\nvalue = [60, 27]"] ;
157 -> 158 ;
159 [label="gini = 0.2975\nsamples = 33\nvalue = [27, 6]"] ;
157 -> 159 ;
160 [label="HINCP <= 66275.0\ngini = 0.3457\nsamples = 9\nvalue = [2, 7]"] ;
156 -> 160 ;
161 [label="gini = 0.4444\nsamples = 6\nvalue = [2, 4]"] ;
160 -> 161 ;
162 [label="gini = 0.0\nsamples = 3\nvalue = [0, 3]"] ;
160 -> 162 ;
163 [label="children <= 0.5\ngini = 0.1493\nsamples = 357\nvalue = [328, 29]"] ;
155 -> 163 ;
164 [label="VEH <= 2.5\ngini = 0.1394\nsamples = 345\nvalue = [319, 26]"] ;
163 -> 164 ;
165 [label="gini = 0.1266\nsamples = 265\nvalue = [247, 18]"] ;
164 -> 165 ;
166 [label="gini = 0.18\nsamples = 80\nvalue = [72, 8]"] ;
164 -> 166 ;
167 [label="fs_recode <= 0.5\ngini = 0.375\nsamples = 12\nvalue = [9, 3]"] ;
163 -> 167 ;
168 [label="gini = 0.4444\nsamples = 9\nvalue = [6, 3]"] ;
167 -> 168 ;
169 [label="gini = 0.0\nsamples = 3\nvalue = [3, 0]"] ;
167 -> 169 ;
170 [label="HINCP <= 227500.0\ngini = 0.3992\nsamples = 686\nvalue = [497, 189]"] ;
140 -> 170 ;
171 [label="NR <= 0.5\ngini = 0.3766\nsamples = 612\nvalue = [458, 154]"] ;
170 -> 171 ;
172 [label="VEH <= 2.5\ngini = 0.4932\nsamples = 77\nvalue = [34, 43]"] ;
171 -> 172 ;
173 [label="english_hh <= 0.5\ngini = 0.4995\nsamples = 64\nvalue = [31, 33]"] ;
172 -> 173 ;
174 [label="gini = 0.48\nsamples = 15\nvalue = [6, 9]"] ;
173 -> 174 ;
175 [label="gini = 0.4998\nsamples = 49\nvalue = [25, 24]"] ;
173 -> 175 ;
176 [label="HINCP <= 168000.0\ngini = 0.355\nsamples = 13\nvalue = [3, 10]"] ;
172 -> 176 ;
177 [label="gini = 0.2975\nsamples = 11\nvalue = [2, 9]"] ;
176 -> 177 ;
178 [label="gini = 0.5\nsamples = 2\nvalue = [1, 1]"] ;
176 -> 178 ;
179 [label="children <= 0.5\ngini = 0.3289\nsamples = 535\nvalue = [424, 111]"] ;
171 -> 179 ;
180 [label="unmarried_partner <= 0.5\ngini = 0.3228\nsamples = 519\nvalue = [414, 105]"] ;
179 -> 180 ;
181 [label="gini = 0.2036\nsamples = 226\nvalue = [200, 26]"] ;
180 -> 181 ;
182 [label="gini = 0.3939\nsamples = 293\nvalue = [214, 79]"] ;
180 -> 182 ;
183 [label="HINCP <= 97900.0\ngini = 0.4688\nsamples = 16\nvalue = [10, 6]"] ;
179 -> 183 ;
184 [label="gini = 0.0\nsamples = 4\nvalue = [4, 0]"] ;
183 -> 184 ;
185 [label="gini = 0.5\nsamples = 12\nvalue = [6, 6]"] ;
183 -> 185 ;
186 [label="VEH <= 2.5\ngini = 0.4985\nsamples = 74\nvalue = [39, 35]"] ;
170 -> 186 ;
187 [label="unmarried_partner <= 0.5\ngini = 0.4831\nsamples = 49\nvalue = [20, 29]"] ;
186 -> 187 ;
188 [label="HINCP <= 530500.0\ngini = 0.495\nsamples = 20\nvalue = [11, 9]"] ;
187 -> 188 ;
189 [label="gini = 0.4753\nsamples = 18\nvalue = [11, 7]"] ;
188 -> 189 ;
190 [label="gini = 0.0\nsamples = 2\nvalue = [0, 2]"] ;
188 -> 190 ;
191 [label="HINCP <= 436800.0\ngini = 0.4281\nsamples = 29\nvalue = [9, 20]"] ;
187 -> 191 ;
192 [label="gini = 0.375\nsamples = 24\nvalue = [6, 18]"] ;
191 -> 192 ;
193 [label="gini = 0.48\nsamples = 5\nvalue = [3, 2]"] ;
191 -> 193 ;
194 [label="unmarried_partner <= 0.5\ngini = 0.3648\nsamples = 25\nvalue = [19, 6]"] ;
186 -> 194 ;
195 [label="english_hh <= 0.5\ngini = 0.1884\nsamples = 19\nvalue = [17, 2]"] ;
194 -> 195 ;
196 [label="gini = 0.0\nsamples = 7\nvalue = [7, 0]"] ;
195 -> 196 ;
197 [label="gini = 0.2778\nsamples = 12\nvalue = [10, 2]"] ;
195 -> 197 ;
198 [label="HINCP <= 362500.0\ngini = 0.4444\nsamples = 6\nvalue = [2, 4]"] ;
194 -> 198 ;
199 [label="gini = 0.4444\nsamples = 3\nvalue = [2, 1]"] ;
198 -> 199 ;
200 [label="gini = 0.0\nsamples = 3\nvalue = [0, 3]"] ;
198 -> 200 ;
}